digraph Tree {
node [shape=box, style="filled, rounded", color="black", fontname=helvetica] ;
edge [fontname=helvetica] ;
0 [label="petal length (cm) <= 2.45\ngini = 0.663\nsamples = 112\nvalue = [33, 42, 37]", fillcolor="#39e58111"] ;
1 [label="gini = 0.0\nsamples = 33\nvalue = [33, 0, 0]", fillcolor="#e58139ff"] ;
0 -> 1 [labeldistance=2.5, labelangle=45, headlabel="True"] ;
2 [label="petal length (cm) <= 5.05\ngini = 0.498\nsamples = 79\nvalue = [0, 42, 37]", fillcolor="#39e5811e"] ;
0 -> 2 [labeldistance=2.5, labelangle=-45, headlabel="False"] ;
3 [label="petal width (cm) <= 1.65\ngini = 0.19\nsamples = 47\nvalue = [0, 42, 5]", fillcolor="#39e581e1"] ;
2 -> 3 ;
4 [label="petal length (cm) <= 4.95\ngini = 0.048\nsamples = 41\nvalue = [0, 40, 1]", fillcolor="#39e581f9"] ;
3 -> 4 ;
5 [label="gini = 0.0\nsamples = 40\nvalue = [0, 40, 0]", fillcolor="#39e581ff"] ;
4 -> 5 ;
6 [label="gini = 0.0\nsamples = 1\nvalue = [0, 0, 1]", fillcolor="#8139e5ff"] ;
4 -> 6 ;
7 [label="sepal width (cm) <= 2.9\ngini = 0.444\nsamples = 6\nvalue = [0, 2, 4]", fillcolor="#8139e57f"] ;
3 -> 7 ;
8 [label="gini = 0.0\nsamples = 3\nvalue = [0, 0, 3]", fillcolor="#8139e5ff"] ;
7 -> 8 ;
9 [label="sepal width (cm) <= 3.1\ngini = 0.444\nsamples = 3\nvalue = [0, 2, 1]", fillcolor="#39e5817f"] ;
7 -> 9 ;
10 [label="petal width (cm) <= 1.75\ngini = 0.5\nsamples = 2\nvalue = [0, 1, 1]", fillcolor="#39e58100"] ;
9 -> 10 ;
11 [label="gini = 0.0\nsamples = 1\nvalue = [0, 1, 0]", fillcolor="#39e581ff"] ;
10 -> 11 ;
12 [label="gini = 0.0\nsamples = 1\nvalue = [0, 0, 1]", fillcolor="#8139e5ff"] ;
10 -> 12 ;
13 [label="gini = 0.0\nsamples = 1\nvalue = [0, 1, 0]", fillcolor="#39e581ff"] ;
9 -> 13 ;
14 [label="gini = 0.0\nsamples = 32\nvalue = [0, 0, 32]", fillcolor="#8139e5ff"] ;
2 -> 14 ;
}